digraph Tree {
node [shape=box, fontname="helvetica"] ;
edge [fontname="helvetica"] ;
0 [label="Suicidal Thoughts_Yes <= 0.5\ngini = 0.486\nsamples = 20925\nvalue = [8713, 12212]"] ;
1 [label="Academic Pressure <= 3.5\ngini = 0.352\nsamples = 7651\nvalue = [5904, 1747]"] ;
0 -> 1 [labeldistance=2.5, labelangle=45, headlabel="True"] ;
2 [label="Financial Stress <= 3.5\ngini = 0.224\nsamples = 5546\nvalue = [4832, 714]"] ;
1 -> 2 ;
3 [label="Dietary Habits_Unhealthy <= 0.5\ngini = 0.145\nsamples = 3875\nvalue = [3569, 306]"] ;
2 -> 3 ;
4 [label="Academic Pressure <= 2.5\ngini = 0.101\nsamples = 2848\nvalue = [2696, 152]"] ;
3 -> 4 ;
5 [label="Dietary Habits_Others <= 0.5\ngini = 0.067\nsamples = 1903\nvalue = [1837, 66]"] ;
4 -> 5 ;
6 [label="Financial Stress <= 2.5\ngini = 0.066\nsamples = 1902\nvalue = [1837, 65]"] ;
5 -> 6 ;
7 [label="Age <= 29.5\ngini = 0.049\nsamples = 1418\nvalue = [1382, 36]"] ;
6 -> 7 ;
8 [label="gini = 0.066\nsamples = 933\nvalue = [901, 32]"] ;
7 -> 8 ;
9 [label="gini = 0.016\nsamples = 485\nvalue = [481, 4]"] ;
7 -> 9 ;
10 [label="Age <= 27.5\ngini = 0.113\nsamples = 484\nvalue = [455, 29]"] ;
6 -> 10 ;
11 [label="gini = 0.158\nsamples = 242\nvalue = [221, 21]"] ;
10 -> 11 ;
12 [label="gini = 0.064\nsamples = 242\nvalue = [234, 8]"] ;
10 -> 12 ;
13 [label="gini = 0.0\nsamples = 1\nvalue = [0, 1]"] ;
5 -> 13 ;
14 [label="Financial Stress <= 2.5\ngini = 0.165\nsamples = 945\nvalue = [859, 86]"] ;
4 -> 14 ;
15 [label="Work_study_hours <= 11.5\ngini = 0.125\nsamples = 701\nvalue = [654, 47]"] ;
14 -> 15 ;
16 [label="CGPA <= 5.055\ngini = 0.112\nsamples = 636\nvalue = [598, 38]"] ;
15 -> 16 ;
17 [label="gini = 0.5\nsamples = 2\nvalue = [1, 1]"] ;
16 -> 17 ;
18 [label="gini = 0.11\nsamples = 634\nvalue = [597, 37]"] ;
16 -> 18 ;
19 [label="CGPA <= 8.76\ngini = 0.239\nsamples = 65\nvalue = [56, 9]"] ;
15 -> 19 ;
20 [label="gini = 0.122\nsamples = 46\nvalue = [43, 3]"] ;
19 -> 20 ;
21 [label="gini = 0.432\nsamples = 19\nvalue = [13, 6]"] ;
19 -> 21 ;
22 [label="Age <= 26.5\ngini = 0.269\nsamples = 244\nvalue = [205, 39]"] ;
14 -> 22 ;
23 [label="CGPA <= 9.725\ngini = 0.394\nsamples = 100\nvalue = [73, 27]"] ;
22 -> 23 ;
24 [label="gini = 0.348\nsamples = 89\nvalue = [69, 20]"] ;
23 -> 24 ;
25 [label="gini = 0.463\nsamples = 11\nvalue = [4, 7]"] ;
23 -> 25 ;
26 [label="Work_study_hours <= 11.5\ngini = 0.153\nsamples = 144\nvalue = [132, 12]"] ;
22 -> 26 ;
27 [label="gini = 0.116\nsamples = 130\nvalue = [122, 8]"] ;
26 -> 27 ;
28 [label="gini = 0.408\nsamples = 14\nvalue = [10, 4]"] ;
26 -> 28 ;
29 [label="Academic Pressure <= 2.5\ngini = 0.255\nsamples = 1027\nvalue = [873, 154]"] ;
3 -> 29 ;
30 [label="Work_study_hours <= 7.5\ngini = 0.169\nsamples = 686\nvalue = [622, 64]"] ;
29 -> 30 ;
31 [label="Age <= 18.5\ngini = 0.068\nsamples = 399\nvalue = [385, 14]"] ;
30 -> 31 ;
32 [label="CGPA <= 5.63\ngini = 0.337\nsamples = 14\nvalue = [11, 3]"] ;
31 -> 32 ;
33 [label="gini = 0.0\nsamples = 1\nvalue = [0, 1]"] ;
32 -> 33 ;
34 [label="gini = 0.26\nsamples = 13\nvalue = [11, 2]"] ;
32 -> 34 ;
35 [label="Study Satisfaction <= 3.5\ngini = 0.056\nsamples = 385\nvalue = [374, 11]"] ;
31 -> 35 ;
36 [label="gini = 0.09\nsamples = 211\nvalue = [201, 10]"] ;
35 -> 36 ;
37 [label="gini = 0.011\nsamples = 174\nvalue = [173, 1]"] ;
35 -> 37 ;
38 [label="Age <= 24.5\ngini = 0.288\nsamples = 287\nvalue = [237, 50]"] ;
30 -> 38 ;
39 [label="CGPA <= 5.95\ngini = 0.419\nsamples = 107\nvalue = [75.0, 32.0]"] ;
38 -> 39 ;
40 [label="gini = 0.499\nsamples = 19\nvalue = [9, 10]"] ;
39 -> 40 ;
41 [label="gini = 0.375\nsamples = 88\nvalue = [66, 22]"] ;
39 -> 41 ;
42 [label="Financial Stress <= 1.5\ngini = 0.18\nsamples = 180\nvalue = [162, 18]"] ;
38 -> 42 ;
43 [label="gini = 0.07\nsamples = 83\nvalue = [80, 3]"] ;
42 -> 43 ;
44 [label="gini = 0.261\nsamples = 97\nvalue = [82, 15]"] ;
42 -> 44 ;
45 [label="Work_study_hours <= 6.5\ngini = 0.389\nsamples = 341\nvalue = [251, 90]"] ;
29 -> 45 ;
46 [label="CGPA <= 9.65\ngini = 0.26\nsamples = 156\nvalue = [132, 24]"] ;
45 -> 46 ;
47 [label="Work_study_hours <= 2.5\ngini = 0.225\nsamples = 147\nvalue = [128, 19]"] ;
46 -> 47 ;
48 [label="gini = 0.061\nsamples = 63\nvalue = [61, 2]"] ;
47 -> 48 ;
49 [label="gini = 0.323\nsamples = 84\nvalue = [67, 17]"] ;
47 -> 49 ;
50 [label="Sleep Duration_Less than 5 hours <= 0.5\ngini = 0.494\nsamples = 9\nvalue = [4, 5]"] ;
46 -> 50 ;
51 [label="gini = 0.444\nsamples = 6\nvalue = [4, 2]"] ;
50 -> 51 ;
52 [label="gini = 0.0\nsamples = 3\nvalue = [0, 3]"] ;
50 -> 52 ;
53 [label="Age <= 22.5\ngini = 0.459\nsamples = 185\nvalue = [119, 66]"] ;
45 -> 53 ;
54 [label="CGPA <= 7.905\ngini = 0.473\nsamples = 47\nvalue = [18, 29]"] ;
53 -> 54 ;
55 [label="gini = 0.496\nsamples = 22\nvalue = [12, 10]"] ;
54 -> 55 ;
56 [label="gini = 0.365\nsamples = 25\nvalue = [6, 19]"] ;
54 -> 56 ;
57 [label="CGPA <= 5.345\ngini = 0.392\nsamples = 138\nvalue = [101, 37]"] ;
53 -> 57 ;
58 [label="gini = 0.32\nsamples = 5\nvalue = [1, 4]"] ;
57 -> 58 ;
59 [label="gini = 0.373\nsamples = 133\nvalue = [100, 33]"] ;
57 -> 59 ;
60 [label="Academic Pressure <= 2.5\ngini = 0.369\nsamples = 1671\nvalue = [1263, 408]"] ;
2 -> 60 ;
61 [label="Dietary Habits_Unhealthy <= 0.5\ngini = 0.273\nsamples = 1031\nvalue = [863, 168]"] ;
60 -> 61 ;
62 [label="Academic Pressure <= 1.5\ngini = 0.191\nsamples = 710\nvalue = [634, 76]"] ;
61 -> 62 ;
63 [label="Age <= 24.5\ngini = 0.122\nsamples = 413\nvalue = [386, 27]"] ;
62 -> 63 ;
64 [label="Sleep Duration_Less than 5 hours <= 0.5\ngini = 0.188\nsamples = 181\nvalue = [162, 19]"] ;
63 -> 64 ;
65 [label="gini = 0.23\nsamples = 136\nvalue = [118, 18]"] ;
64 -> 65 ;
66 [label="gini = 0.043\nsamples = 45\nvalue = [44, 1]"] ;
64 -> 66 ;
67 [label="Dietary Habits_Moderate <= 0.5\ngini = 0.067\nsamples = 232\nvalue = [224, 8]"] ;
63 -> 67 ;
68 [label="gini = 0.016\nsamples = 122\nvalue = [121, 1]"] ;
67 -> 68 ;
69 [label="gini = 0.119\nsamples = 110\nvalue = [103.0, 7.0]"] ;
67 -> 69 ;
70 [label="CGPA <= 9.965\ngini = 0.276\nsamples = 297\nvalue = [248, 49]"] ;
62 -> 70 ;
71 [label="Study Satisfaction <= 1.5\ngini = 0.264\nsamples = 294\nvalue = [248, 46]"] ;
70 -> 71 ;
72 [label="gini = 0.46\nsamples = 39\nvalue = [25.0, 14.0]"] ;
71 -> 72 ;
73 [label="gini = 0.219\nsamples = 255\nvalue = [223, 32]"] ;
71 -> 73 ;
74 [label="gini = 0.0\nsamples = 3\nvalue = [0, 3]"] ;
70 -> 74 ;
75 [label="Age <= 29.5\ngini = 0.409\nsamples = 321\nvalue = [229.0, 92.0]"] ;
61 -> 75 ;
76 [label="Work_study_hours <= 7.5\ngini = 0.46\nsamples = 231\nvalue = [148, 83]"] ;
75 -> 76 ;
77 [label="Study Satisfaction <= 4.5\ngini = 0.361\nsamples = 127\nvalue = [97, 30]"] ;
76 -> 77 ;
78 [label="gini = 0.404\nsamples = 107\nvalue = [77.0, 30.0]"] ;
77 -> 78 ;
79 [label="gini = 0.0\nsamples = 20\nvalue = [20, 0]"] ;
77 -> 79 ;
80 [label="Academic Pressure <= 1.5\ngini = 0.5\nsamples = 104\nvalue = [51, 53]"] ;
76 -> 80 ;
81 [label="gini = 0.461\nsamples = 50\nvalue = [32, 18]"] ;
80 -> 81 ;
82 [label="gini = 0.456\nsamples = 54\nvalue = [19, 35]"] ;
80 -> 82 ;
83 [label="Age <= 32.5\ngini = 0.18\nsamples = 90\nvalue = [81, 9]"] ;
75 -> 83 ;
84 [label="Financial Stress <= 4.5\ngini = 0.295\nsamples = 39\nvalue = [32, 7]"] ;
83 -> 84 ;
85 [label="gini = 0.1\nsamples = 19\nvalue = [18, 1]"] ;
84 -> 85 ;
86 [label="gini = 0.42\nsamples = 20\nvalue = [14, 6]"] ;
84 -> 86 ;
87 [label="Family History_Yes <= 0.5\ngini = 0.075\nsamples = 51\nvalue = [49, 2]"] ;
83 -> 87 ;
88 [label="gini = 0.0\nsamples = 29\nvalue = [29, 0]"] ;
87 -> 88 ;
89 [label="gini = 0.165\nsamples = 22\nvalue = [20, 2]"] ;
87 -> 89 ;
90 [label="Age <= 24.5\ngini = 0.469\nsamples = 640\nvalue = [400, 240]"] ;
60 -> 90 ;
91 [label="Financial Stress <= 4.5\ngini = 0.495\nsamples = 251\nvalue = [113, 138]"] ;
90 -> 91 ;
92 [label="Study Satisfaction <= 4.5\ngini = 0.482\nsamples = 111\nvalue = [66, 45]"] ;
91 -> 92 ;
93 [label="Sleep Duration_More than 8 hours <= 0.5\ngini = 0.498\nsamples = 91\nvalue = [48, 43]"] ;
92 -> 93 ;
94 [label="gini = 0.498\nsamples = 75\nvalue = [35, 40]"] ;
93 -> 94 ;
95 [label="gini = 0.305\nsamples = 16\nvalue = [13, 3]"] ;
93 -> 95 ;
96 [label="CGPA <= 9.55\ngini = 0.18\nsamples = 20\nvalue = [18, 2]"] ;
92 -> 96 ;
97 [label="gini = 0.105\nsamples = 18\nvalue = [17, 1]"] ;
96 -> 97 ;
98 [label="gini = 0.5\nsamples = 2\nvalue = [1, 1]"] ;
96 -> 98 ;
99 [label="Work_study_hours <= 5.5\ngini = 0.446\nsamples = 140\nvalue = [47.0, 93.0]"] ;
91 -> 99 ;
100 [label="CGPA <= 7.935\ngini = 0.494\nsamples = 45\nvalue = [25, 20]"] ;
99 -> 100 ;
101 [label="gini = 0.417\nsamples = 27\nvalue = [19, 8]"] ;
100 -> 101 ;
102 [label="gini = 0.444\nsamples = 18\nvalue = [6, 12]"] ;
100 -> 102 ;
103 [label="Gender_Male <= 0.5\ngini = 0.356\nsamples = 95\nvalue = [22, 73]"] ;
99 -> 103 ;
104 [label="gini = 0.484\nsamples = 39\nvalue = [16, 23]"] ;
103 -> 104 ;
105 [label="gini = 0.191\nsamples = 56\nvalue = [6, 50]"] ;
103 -> 105 ;
106 [label="Dietary Habits_Unhealthy <= 0.5\ngini = 0.387\nsamples = 389\nvalue = [287, 102]"] ;
90 -> 106 ;
107 [label="Work_study_hours <= 7.5\ngini = 0.312\nsamples = 259\nvalue = [209, 50]"] ;
106 -> 107 ;
108 [label="CGPA <= 7.785\ngini = 0.175\nsamples = 124\nvalue = [112, 12]"] ;
107 -> 108 ;
109 [label="gini = 0.056\nsamples = 70\nvalue = [68, 2]"] ;
108 -> 109 ;
110 [label="gini = 0.302\nsamples = 54\nvalue = [44, 10]"] ;
108 -> 110 ;
111 [label="Age <= 38.5\ngini = 0.404\nsamples = 135\nvalue = [97, 38]"] ;
107 -> 111 ;
112 [label="gini = 0.395\nsamples = 133\nvalue = [97, 36]"] ;
111 -> 112 ;
113 [label="gini = 0.0\nsamples = 2\nvalue = [0, 2]"] ;
111 -> 113 ;
114 [label="Work_study_hours <= 2.5\ngini = 0.48\nsamples = 130\nvalue = [78, 52]"] ;
106 -> 114 ;
115 [label="Study Satisfaction <= 1.5\ngini = 0.251\nsamples = 34\nvalue = [29, 5]"] ;
114 -> 115 ;
116 [label="gini = 0.0\nsamples = 1\nvalue = [0, 1]"] ;
115 -> 116 ;
117 [label="gini = 0.213\nsamples = 33\nvalue = [29, 4]"] ;
115 -> 117 ;
118 [label="Age <= 32.5\ngini = 0.5\nsamples = 96\nvalue = [49, 47]"] ;
114 -> 118 ;
119 [label="gini = 0.495\nsamples = 78\nvalue = [35, 43]"] ;
118 -> 119 ;
120 [label="gini = 0.346\nsamples = 18\nvalue = [14, 4]"] ;
118 -> 120 ;
121 [label="Financial Stress <= 2.5\ngini = 0.5\nsamples = 2105\nvalue = [1072, 1033]"] ;
1 -> 121 ;
122 [label="Age <= 25.5\ngini = 0.428\nsamples = 901\nvalue = [622, 279]"] ;
121 -> 122 ;
123 [label="Work_study_hours <= 4.5\ngini = 0.492\nsamples = 391\nvalue = [220, 171]"] ;
122 -> 123 ;
124 [label="Sleep Duration_Less than 5 hours <= 0.5\ngini = 0.418\nsamples = 121\nvalue = [85, 36]"] ;
123 -> 124 ;
125 [label="Academic Pressure <= 4.5\ngini = 0.344\nsamples = 86\nvalue = [67, 19]"] ;
124 -> 125 ;
126 [label="Work_study_hours <= 3.5\ngini = 0.122\nsamples = 46\nvalue = [43, 3]"] ;
125 -> 126 ;
127 [label="gini = 0.056\nsamples = 35\nvalue = [34, 1]"] ;
126 -> 127 ;
128 [label="gini = 0.298\nsamples = 11\nvalue = [9, 2]"] ;
126 -> 128 ;
129 [label="Age <= 19.5\ngini = 0.48\nsamples = 40\nvalue = [24, 16]"] ;
125 -> 129 ;
130 [label="gini = 0.32\nsamples = 10\nvalue = [2, 8]"] ;
129 -> 130 ;
131 [label="gini = 0.391\nsamples = 30\nvalue = [22, 8]"] ;
129 -> 131 ;
132 [label="CGPA <= 9.68\ngini = 0.5\nsamples = 35\nvalue = [18, 17]"] ;
124 -> 132 ;
133 [label="Gender_Male <= 0.5\ngini = 0.492\nsamples = 32\nvalue = [18, 14]"] ;
132 -> 133 ;
134 [label="gini = 0.48\nsamples = 15\nvalue = [6, 9]"] ;
133 -> 134 ;
135 [label="gini = 0.415\nsamples = 17\nvalue = [12, 5]"] ;
133 -> 135 ;
136 [label="gini = 0.0\nsamples = 3\nvalue = [0, 3]"] ;
132 -> 136 ;
137 [label="Study Satisfaction <= 2.5\ngini = 0.5\nsamples = 270\nvalue = [135, 135]"] ;
123 -> 137 ;
138 [label="Dietary Habits_Unhealthy <= 0.5\ngini = 0.457\nsamples = 113\nvalue = [40, 73]"] ;
137 -> 138 ;
139 [label="CGPA <= 9.69\ngini = 0.494\nsamples = 79\nvalue = [35, 44]"] ;
138 -> 139 ;
140 [label="gini = 0.483\nsamples = 71\nvalue = [29, 42]"] ;
139 -> 140 ;
141 [label="gini = 0.375\nsamples = 8\nvalue = [6, 2]"] ;
139 -> 141 ;
142 [label="Sleep Duration_Less than 5 hours <= 0.5\ngini = 0.251\nsamples = 34\nvalue = [5, 29]"] ;
138 -> 142 ;
143 [label="gini = 0.32\nsamples = 25\nvalue = [5, 20]"] ;
142 -> 143 ;
144 [label="gini = 0.0\nsamples = 9\nvalue = [0, 9]"] ;
142 -> 144 ;
145 [label="Age <= 18.5\ngini = 0.478\nsamples = 157\nvalue = [95.0, 62.0]"] ;
137 -> 145 ;
146 [label="CGPA <= 5.955\ngini = 0.435\nsamples = 25\nvalue = [8, 17]"] ;
145 -> 146 ;
147 [label="gini = 0.0\nsamples = 4\nvalue = [4, 0]"] ;
146 -> 147 ;
148 [label="gini = 0.308\nsamples = 21\nvalue = [4, 17]"] ;
146 -> 148 ;
149 [label="CGPA <= 8.615\ngini = 0.449\nsamples = 132\nvalue = [87, 45]"] ;
145 -> 149 ;
150 [label="gini = 0.409\nsamples = 101\nvalue = [72.0, 29.0]"] ;
149 -> 150 ;
151 [label="gini = 0.499\nsamples = 31\nvalue = [15, 16]"] ;
149 -> 151 ;
152 [label="Study Satisfaction <= 3.5\ngini = 0.334\nsamples = 510\nvalue = [402, 108]"] ;
122 -> 152 ;
153 [label="Sleep Duration_Less than 5 hours <= 0.5\ngini = 0.402\nsamples = 291\nvalue = [210, 81]"] ;
152 -> 153 ;
154 [label="Academic Pressure <= 4.5\ngini = 0.345\nsamples = 203\nvalue = [158, 45]"] ;
153 -> 154 ;
155 [label="Study Satisfaction <= 1.5\ngini = 0.234\nsamples = 111\nvalue = [96, 15]"] ;
154 -> 155 ;
156 [label="gini = 0.408\nsamples = 21\nvalue = [15, 6]"] ;
155 -> 156 ;
157 [label="gini = 0.18\nsamples = 90\nvalue = [81, 9]"] ;
155 -> 157 ;
158 [label="Work_study_hours <= 5.5\ngini = 0.44\nsamples = 92\nvalue = [62, 30]"] ;
154 -> 158 ;
159 [label="gini = 0.271\nsamples = 31\nvalue = [26, 5]"] ;
158 -> 159 ;
160 [label="gini = 0.484\nsamples = 61\nvalue = [36, 25]"] ;
158 -> 160 ;
161 [label="CGPA <= 7.33\ngini = 0.483\nsamples = 88\nvalue = [52, 36]"] ;
153 -> 161 ;
162 [label="Work_study_hours <= 8.5\ngini = 0.293\nsamples = 28\nvalue = [23, 5]"] ;
161 -> 162 ;
163 [label="gini = 0.0\nsamples = 16\nvalue = [16, 0]"] ;
162 -> 163 ;
164 [label="gini = 0.486\nsamples = 12\nvalue = [7, 5]"] ;
162 -> 164 ;
165 [label="CGPA <= 7.78\ngini = 0.499\nsamples = 60\nvalue = [29.0, 31.0]"] ;
161 -> 165 ;
166 [label="gini = 0.219\nsamples = 8\nvalue = [1, 7]"] ;
165 -> 166 ;
167 [label="gini = 0.497\nsamples = 52\nvalue = [28, 24]"] ;
165 -> 167 ;
168 [label="Age <= 29.5\ngini = 0.216\nsamples = 219\nvalue = [192, 27]"] ;
152 -> 168 ;
169 [label="Work_study_hours <= 4.5\ngini = 0.341\nsamples = 87\nvalue = [68, 19]"] ;
168 -> 169 ;
170 [label="Age <= 26.5\ngini = 0.124\nsamples = 30\nvalue = [28, 2]"] ;
169 -> 170 ;
171 [label="gini = 0.375\nsamples = 4\nvalue = [3, 1]"] ;
170 -> 171 ;
172 [label="gini = 0.074\nsamples = 26\nvalue = [25, 1]"] ;
170 -> 172 ;
173 [label="Financial Stress <= 1.5\ngini = 0.419\nsamples = 57\nvalue = [40, 17]"] ;
169 -> 173 ;
174 [label="gini = 0.271\nsamples = 31\nvalue = [26, 5]"] ;
173 -> 174 ;
175 [label="gini = 0.497\nsamples = 26\nvalue = [14, 12]"] ;
173 -> 175 ;
176 [label="CGPA <= 9.965\ngini = 0.114\nsamples = 132\nvalue = [124, 8]"] ;
168 -> 176 ;
177 [label="Work_study_hours <= 7.5\ngini = 0.101\nsamples = 131\nvalue = [124, 7]"] ;
176 -> 177 ;
178 [label="gini = 0.027\nsamples = 74\nvalue = [73, 1]"] ;
177 -> 178 ;
179 [label="gini = 0.188\nsamples = 57\nvalue = [51, 6]"] ;
177 -> 179 ;
180 [label="gini = 0.0\nsamples = 1\nvalue = [0, 1]"] ;
176 -> 180 ;
181 [label="Financial Stress <= 4.5\ngini = 0.468\nsamples = 1204\nvalue = [450.0, 754.0]"] ;
121 -> 181 ;
182 [label="Age <= 29.5\ngini = 0.496\nsamples = 772\nvalue = [350.0, 422.0]"] ;
181 -> 182 ;
183 [label="Work_study_hours <= 2.5\ngini = 0.48\nsamples = 591\nvalue = [237, 354]"] ;
182 -> 183 ;
184 [label="Family History_Yes <= 0.5\ngini = 0.475\nsamples = 103\nvalue = [63.0, 40.0]"] ;
183 -> 184 ;
185 [label="Study Satisfaction <= 1.5\ngini = 0.35\nsamples = 62\nvalue = [48, 14]"] ;
184 -> 185 ;
186 [label="gini = 0.444\nsamples = 12\nvalue = [4, 8]"] ;
185 -> 186 ;
187 [label="gini = 0.211\nsamples = 50\nvalue = [44, 6]"] ;
185 -> 187 ;
188 [label="CGPA <= 8.925\ngini = 0.464\nsamples = 41\nvalue = [15, 26]"] ;
184 -> 188 ;
189 [label="gini = 0.432\nsamples = 38\nvalue = [12, 26]"] ;
188 -> 189 ;
190 [label="gini = 0.0\nsamples = 3\nvalue = [3, 0]"] ;
188 -> 190 ;
191 [label="Study Satisfaction <= 3.5\ngini = 0.459\nsamples = 488\nvalue = [174, 314]"] ;
183 -> 191 ;
192 [label="CGPA <= 7.81\ngini = 0.414\nsamples = 307\nvalue = [90, 217]"] ;
191 -> 192 ;
193 [label="gini = 0.46\nsamples = 148\nvalue = [53, 95]"] ;
192 -> 193 ;
194 [label="gini = 0.357\nsamples = 159\nvalue = [37.0, 122.0]"] ;
192 -> 194 ;
195 [label="Academic Pressure <= 4.5\ngini = 0.497\nsamples = 181\nvalue = [84, 97]"] ;
191 -> 195 ;
196 [label="gini = 0.46\nsamples = 78\nvalue = [50.0, 28.0]"] ;
195 -> 196 ;
197 [label="gini = 0.442\nsamples = 103\nvalue = [34, 69]"] ;
195 -> 197 ;
198 [label="Work_study_hours <= 9.5\ngini = 0.469\nsamples = 181\nvalue = [113.0, 68.0]"] ;
182 -> 198 ;
199 [label="Study Satisfaction <= 2.5\ngini = 0.432\nsamples = 127\nvalue = [87, 40]"] ;
198 -> 199 ;
200 [label="CGPA <= 8.415\ngini = 0.496\nsamples = 59\nvalue = [32, 27]"] ;
199 -> 200 ;
201 [label="gini = 0.422\nsamples = 33\nvalue = [23, 10]"] ;
200 -> 201 ;
202 [label="gini = 0.453\nsamples = 26\nvalue = [9, 17]"] ;
200 -> 202 ;
203 [label="CGPA <= 7.065\ngini = 0.309\nsamples = 68\nvalue = [55, 13]"] ;
199 -> 203 ;
204 [label="gini = 0.412\nsamples = 31\nvalue = [22, 9]"] ;
203 -> 204 ;
205 [label="gini = 0.193\nsamples = 37\nvalue = [33, 4]"] ;
203 -> 205 ;
206 [label="CGPA <= 6.655\ngini = 0.499\nsamples = 54\nvalue = [26, 28]"] ;
198 -> 206 ;
207 [label="Sleep Duration_7-8 hours <= 0.5\ngini = 0.42\nsamples = 20\nvalue = [6, 14]"] ;
206 -> 207 ;
208 [label="gini = 0.305\nsamples = 16\nvalue = [3, 13]"] ;
207 -> 208 ;
209 [label="gini = 0.375\nsamples = 4\nvalue = [3, 1]"] ;
207 -> 209 ;
210 [label="CGPA <= 9.315\ngini = 0.484\nsamples = 34\nvalue = [20, 14]"] ;
206 -> 210 ;
211 [label="gini = 0.386\nsamples = 23\nvalue = [17, 6]"] ;
210 -> 211 ;
212 [label="gini = 0.397\nsamples = 11\nvalue = [3, 8]"] ;
210 -> 212 ;
213 [label="Age <= 28.5\ngini = 0.356\nsamples = 432\nvalue = [100, 332]"] ;
181 -> 213 ;
214 [label="Dietary Habits_Unhealthy <= 0.5\ngini = 0.267\nsamples = 315\nvalue = [50, 265]"] ;
213 -> 214 ;
215 [label="Sleep Duration_More than 8 hours <= 0.5\ngini = 0.335\nsamples = 183\nvalue = [39, 144]"] ;
214 -> 215 ;
216 [label="CGPA <= 9.935\ngini = 0.271\nsamples = 136\nvalue = [22, 114]"] ;
215 -> 216 ;
217 [label="gini = 0.256\nsamples = 133\nvalue = [20, 113]"] ;
216 -> 217 ;
218 [label="gini = 0.444\nsamples = 3\nvalue = [2, 1]"] ;
216 -> 218 ;
219 [label="CGPA <= 5.99\ngini = 0.462\nsamples = 47\nvalue = [17, 30]"] ;
215 -> 219 ;
220 [label="gini = 0.298\nsamples = 11\nvalue = [9, 2]"] ;
219 -> 220 ;
221 [label="gini = 0.346\nsamples = 36\nvalue = [8, 28]"] ;
219 -> 221 ;
222 [label="Work_study_hours <= 0.5\ngini = 0.153\nsamples = 132\nvalue = [11, 121]"] ;
214 -> 222 ;
223 [label="Sleep Duration_7-8 hours <= 0.5\ngini = 0.375\nsamples = 8\nvalue = [2, 6]"] ;
222 -> 223 ;
224 [label="gini = 0.0\nsamples = 5\nvalue = [0, 5]"] ;
223 -> 224 ;
225 [label="gini = 0.444\nsamples = 3\nvalue = [2, 1]"] ;
223 -> 225 ;
226 [label="CGPA <= 5.62\ngini = 0.135\nsamples = 124\nvalue = [9, 115]"] ;
222 -> 226 ;
227 [label="gini = 0.375\nsamples = 8\nvalue = [2, 6]"] ;
226 -> 227 ;
228 [label="gini = 0.113\nsamples = 116\nvalue = [7, 109]"] ;
226 -> 228 ;
229 [label="Work_study_hours <= 9.5\ngini = 0.489\nsamples = 117\nvalue = [50, 67]"] ;
213 -> 229 ;
230 [label="Study Satisfaction <= 4.5\ngini = 0.499\nsamples = 75\nvalue = [39, 36]"] ;
229 -> 230 ;
231 [label="Work_study_hours <= 1.5\ngini = 0.499\nsamples = 67\nvalue = [32, 35]"] ;
230 -> 231 ;
232 [label="gini = 0.32\nsamples = 10\nvalue = [8, 2]"] ;
231 -> 232 ;
233 [label="gini = 0.488\nsamples = 57\nvalue = [24, 33]"] ;
231 -> 233 ;
234 [label="Age <= 30.5\ngini = 0.219\nsamples = 8\nvalue = [7, 1]"] ;
230 -> 234 ;
235 [label="gini = 0.0\nsamples = 1\nvalue = [0, 1]"] ;
234 -> 235 ;
236 [label="gini = 0.0\nsamples = 7\nvalue = [7, 0]"] ;
234 -> 236 ;
237 [label="CGPA <= 5.99\ngini = 0.387\nsamples = 42\nvalue = [11, 31]"] ;
229 -> 237 ;
238 [label="gini = 0.0\nsamples = 9\nvalue = [0, 9]"] ;
237 -> 238 ;
239 [label="CGPA <= 6.175\ngini = 0.444\nsamples = 33\nvalue = [11, 22]"] ;
237 -> 239 ;
240 [label="gini = 0.0\nsamples = 2\nvalue = [2, 0]"] ;
239 -> 240 ;
241 [label="gini = 0.412\nsamples = 31\nvalue = [9, 22]"] ;
239 -> 241 ;
242 [label="Academic Pressure <= 2.5\ngini = 0.334\nsamples = 13274\nvalue = [2809, 10465]"] ;
0 -> 242 [labeldistance=2.5, labelangle=-45, headlabel="False"] ;
243 [label="Financial Stress <= 2.5\ngini = 0.5\nsamples = 3079\nvalue = [1553.0, 1526.0]"] ;
242 -> 243 ;
244 [label="Academic Pressure <= 1.5\ngini = 0.396\nsamples = 1098\nvalue = [799, 299]"] ;
243 -> 244 ;
245 [label="Dietary Habits_Unhealthy <= 0.5\ngini = 0.304\nsamples = 582\nvalue = [473, 109]"] ;
244 -> 245 ;
246 [label="Age <= 31.5\ngini = 0.253\nsamples = 404\nvalue = [344, 60]"] ;
245 -> 246 ;
247 [label="CGPA <= 6.77\ngini = 0.288\nsamples = 316\nvalue = [261.0, 55.0]"] ;
246 -> 247 ;
248 [label="CGPA <= 5.095\ngini = 0.164\nsamples = 89\nvalue = [81, 8]"] ;
247 -> 248 ;
249 [label="gini = 0.0\nsamples = 1\nvalue = [0, 1]"] ;
248 -> 249 ;
250 [label="gini = 0.146\nsamples = 88\nvalue = [81, 7]"] ;
248 -> 250 ;
251 [label="Study Satisfaction <= 2.5\ngini = 0.328\nsamples = 227\nvalue = [180, 47]"] ;
247 -> 251 ;
252 [label="gini = 0.407\nsamples = 88\nvalue = [63.0, 25.0]"] ;
251 -> 252 ;
253 [label="gini = 0.266\nsamples = 139\nvalue = [117, 22]"] ;
251 -> 253 ;
254 [label="CGPA <= 6.605\ngini = 0.107\nsamples = 88\nvalue = [83, 5]"] ;
246 -> 254 ;
255 [label="CGPA <= 6.065\ngini = 0.227\nsamples = 23\nvalue = [20, 3]"] ;
254 -> 255 ;
256 [label="gini = 0.0\nsamples = 19\nvalue = [19, 0]"] ;
255 -> 256 ;
257 [label="gini = 0.375\nsamples = 4\nvalue = [1, 3]"] ;
255 -> 257 ;
258 [label="Dietary Habits_Moderate <= 0.5\ngini = 0.06\nsamples = 65\nvalue = [63, 2]"] ;
254 -> 258 ;
259 [label="gini = 0.142\nsamples = 26\nvalue = [24, 2]"] ;
258 -> 259 ;
260 [label="gini = 0.0\nsamples = 39\nvalue = [39, 0]"] ;
258 -> 260 ;
261 [label="Work_study_hours <= 6.5\ngini = 0.399\nsamples = 178\nvalue = [129, 49]"] ;
245 -> 261 ;
262 [label="Study Satisfaction <= 2.5\ngini = 0.296\nsamples = 83\nvalue = [68, 15]"] ;
261 -> 262 ;
263 [label="CGPA <= 9.095\ngini = 0.069\nsamples = 28\nvalue = [27, 1]"] ;
262 -> 263 ;
264 [label="gini = 0.0\nsamples = 23\nvalue = [23, 0]"] ;
263 -> 264 ;
265 [label="gini = 0.32\nsamples = 5\nvalue = [4, 1]"] ;
263 -> 265 ;
266 [label="Family History_Yes <= 0.5\ngini = 0.38\nsamples = 55\nvalue = [41.0, 14.0]"] ;
262 -> 266 ;
267 [label="gini = 0.245\nsamples = 28\nvalue = [24, 4]"] ;
266 -> 267 ;
268 [label="gini = 0.466\nsamples = 27\nvalue = [17, 10]"] ;
266 -> 268 ;
269 [label="Age <= 25.5\ngini = 0.46\nsamples = 95\nvalue = [61, 34]"] ;
261 -> 269 ;
270 [label="Gender_Male <= 0.5\ngini = 0.496\nsamples = 53\nvalue = [29, 24]"] ;
269 -> 270 ;
271 [label="gini = 0.363\nsamples = 21\nvalue = [16, 5]"] ;
270 -> 271 ;
272 [label="gini = 0.482\nsamples = 32\nvalue = [13, 19]"] ;
270 -> 272 ;
273 [label="Sleep Duration_Less than 5 hours <= 0.5\ngini = 0.363\nsamples = 42\nvalue = [32, 10]"] ;
269 -> 273 ;
274 [label="gini = 0.204\nsamples = 26\nvalue = [23, 3]"] ;
273 -> 274 ;
275 [label="gini = 0.492\nsamples = 16\nvalue = [9, 7]"] ;
273 -> 275 ;
276 [label="Work_study_hours <= 1.5\ngini = 0.465\nsamples = 516\nvalue = [326, 190]"] ;
244 -> 276 ;
277 [label="Age <= 21.5\ngini = 0.195\nsamples = 73\nvalue = [65, 8]"] ;
276 -> 277 ;
278 [label="Gender_Male <= 0.5\ngini = 0.494\nsamples = 9\nvalue = [4, 5]"] ;
277 -> 278 ;
279 [label="gini = 0.0\nsamples = 4\nvalue = [0, 4]"] ;
278 -> 279 ;
280 [label="Financial Stress <= 1.5\ngini = 0.32\nsamples = 5\nvalue = [4, 1]"] ;
278 -> 280 ;
281 [label="gini = 0.0\nsamples = 3\nvalue = [3, 0]"] ;
280 -> 281 ;
282 [label="gini = 0.5\nsamples = 2\nvalue = [1, 1]"] ;
280 -> 282 ;
283 [label="Dietary Habits_Unhealthy <= 0.5\ngini = 0.089\nsamples = 64\nvalue = [61, 3]"] ;
277 -> 283 ;
284 [label="gini = 0.0\nsamples = 46\nvalue = [46, 0]"] ;
283 -> 284 ;
285 [label="Sleep Duration_7-8 hours <= 0.5\ngini = 0.278\nsamples = 18\nvalue = [15, 3]"] ;
283 -> 285 ;
286 [label="gini = 0.208\nsamples = 17\nvalue = [15, 2]"] ;
285 -> 286 ;
287 [label="gini = 0.0\nsamples = 1\nvalue = [0, 1]"] ;
285 -> 287 ;
288 [label="Age <= 29.5\ngini = 0.484\nsamples = 443\nvalue = [261, 182]"] ;
276 -> 288 ;
289 [label="CGPA <= 5.565\ngini = 0.499\nsamples = 321\nvalue = [168.0, 153.0]"] ;
288 -> 289 ;
290 [label="Work_study_hours <= 9.5\ngini = 0.227\nsamples = 23\nvalue = [20, 3]"] ;
289 -> 290 ;
291 [label="gini = 0.0\nsamples = 16\nvalue = [16, 0]"] ;
290 -> 291 ;
292 [label="gini = 0.49\nsamples = 7\nvalue = [4, 3]"] ;
290 -> 292 ;
293 [label="Work_study_hours <= 9.5\ngini = 0.5\nsamples = 298\nvalue = [148.0, 150.0]"] ;
289 -> 293 ;
294 [label="gini = 0.494\nsamples = 187\nvalue = [104, 83]"] ;
293 -> 294 ;
295 [label="gini = 0.479\nsamples = 111\nvalue = [44, 67]"] ;
293 -> 295 ;
296 [label="Dietary Habits_Unhealthy <= 0.5\ngini = 0.362\nsamples = 122\nvalue = [93, 29]"] ;
288 -> 296 ;
297 [label="Dietary Habits_Moderate <= 0.5\ngini = 0.248\nsamples = 76\nvalue = [65, 11]"] ;
296 -> 297 ;
298 [label="gini = 0.1\nsamples = 38\nvalue = [36, 2]"] ;
297 -> 298 ;
299 [label="gini = 0.361\nsamples = 38\nvalue = [29, 9]"] ;
297 -> 299 ;
300 [label="Work_study_hours <= 5.5\ngini = 0.476\nsamples = 46\nvalue = [28, 18]"] ;
296 -> 300 ;
301 [label="gini = 0.18\nsamples = 10\nvalue = [9, 1]"] ;
300 -> 301 ;
302 [label="gini = 0.498\nsamples = 36\nvalue = [19, 17]"] ;
300 -> 302 ;
303 [label="Academic Pressure <= 1.5\ngini = 0.471\nsamples = 1981\nvalue = [754, 1227]"] ;
243 -> 303 ;
304 [label="Dietary Habits_Unhealthy <= 0.5\ngini = 0.5\nsamples = 911\nvalue = [451, 460]"] ;
303 -> 304 ;
305 [label="Financial Stress <= 4.5\ngini = 0.485\nsamples = 568\nvalue = [333.0, 235.0]"] ;
304 -> 305 ;
306 [label="Work_study_hours <= 6.5\ngini = 0.447\nsamples = 409\nvalue = [271, 138]"] ;
305 -> 306 ;
307 [label="CGPA <= 6.13\ngini = 0.377\nsamples = 163\nvalue = [122, 41]"] ;
306 -> 307 ;
308 [label="gini = 0.111\nsamples = 34\nvalue = [32, 2]"] ;
307 -> 308 ;
309 [label="gini = 0.422\nsamples = 129\nvalue = [90, 39]"] ;
307 -> 309 ;
310 [label="Study Satisfaction <= 2.5\ngini = 0.478\nsamples = 246\nvalue = [149, 97]"] ;
306 -> 310 ;
311 [label="gini = 0.5\nsamples = 95\nvalue = [47, 48]"] ;
310 -> 311 ;
312 [label="gini = 0.438\nsamples = 151\nvalue = [102, 49]"] ;
310 -> 312 ;
313 [label="Work_study_hours <= 5.5\ngini = 0.476\nsamples = 159\nvalue = [62.0, 97.0]"] ;
305 -> 313 ;
314 [label="CGPA <= 9.005\ngini = 0.465\nsamples = 49\nvalue = [31, 18]"] ;
313 -> 314 ;
315 [label="gini = 0.408\nsamples = 42\nvalue = [30, 12]"] ;
314 -> 315 ;
316 [label="gini = 0.245\nsamples = 7\nvalue = [1, 6]"] ;
314 -> 316 ;
317 [label="Age <= 21.5\ngini = 0.405\nsamples = 110\nvalue = [31.0, 79.0]"] ;
313 -> 317 ;
318 [label="gini = 0.1\nsamples = 38\nvalue = [2, 36]"] ;
317 -> 318 ;
319 [label="gini = 0.481\nsamples = 72\nvalue = [29, 43]"] ;
317 -> 319 ;
320 [label="Work_study_hours <= 7.5\ngini = 0.451\nsamples = 343\nvalue = [118.0, 225.0]"] ;
304 -> 320 ;
321 [label="Age <= 27.5\ngini = 0.5\nsamples = 144\nvalue = [72, 72]"] ;
320 -> 321 ;
322 [label="CGPA <= 6.375\ngini = 0.482\nsamples = 94\nvalue = [38, 56]"] ;
321 -> 322 ;
323 [label="gini = 0.455\nsamples = 20\nvalue = [13, 7]"] ;
322 -> 323 ;
324 [label="gini = 0.447\nsamples = 74\nvalue = [25, 49]"] ;
322 -> 324 ;
325 [label="CGPA <= 7.735\ngini = 0.435\nsamples = 50\nvalue = [34, 16]"] ;
321 -> 325 ;
326 [label="gini = 0.278\nsamples = 24\nvalue = [20, 4]"] ;
325 -> 326 ;
327 [label="gini = 0.497\nsamples = 26\nvalue = [14, 12]"] ;
325 -> 327 ;
328 [label="Age <= 29.5\ngini = 0.355\nsamples = 199\nvalue = [46, 153]"] ;
320 -> 328 ;
329 [label="Family History_Yes <= 0.5\ngini = 0.275\nsamples = 158\nvalue = [26, 132]"] ;
328 -> 329 ;
330 [label="gini = 0.36\nsamples = 85\nvalue = [20, 65]"] ;
329 -> 330 ;
331 [label="gini = 0.151\nsamples = 73\nvalue = [6, 67]"] ;
329 -> 331 ;
332 [label="CGPA <= 6.49\ngini = 0.5\nsamples = 41\nvalue = [20, 21]"] ;
328 -> 332 ;
333 [label="gini = 0.298\nsamples = 11\nvalue = [9, 2]"] ;
332 -> 333 ;
334 [label="gini = 0.464\nsamples = 30\nvalue = [11, 19]"] ;
332 -> 334 ;
335 [label="Age <= 29.5\ngini = 0.406\nsamples = 1070\nvalue = [303, 767]"] ;
303 -> 335 ;
336 [label="Dietary Habits_Unhealthy <= 0.5\ngini = 0.364\nsamples = 840\nvalue = [201, 639]"] ;
335 -> 336 ;
337 [label="Financial Stress <= 4.5\ngini = 0.421\nsamples = 502\nvalue = [151, 351]"] ;
336 -> 337 ;
338 [label="Sleep Duration_More than 8 hours <= 0.5\ngini = 0.463\nsamples = 318\nvalue = [116.0, 202.0]"] ;
337 -> 338 ;
339 [label="gini = 0.436\nsamples = 262\nvalue = [84, 178]"] ;
338 -> 339 ;
340 [label="gini = 0.49\nsamples = 56\nvalue = [32, 24]"] ;
338 -> 340 ;
341 [label="CGPA <= 9.615\ngini = 0.308\nsamples = 184\nvalue = [35, 149]"] ;
337 -> 341 ;
342 [label="gini = 0.264\nsamples = 166\nvalue = [26, 140]"] ;
341 -> 342 ;
343 [label="gini = 0.5\nsamples = 18\nvalue = [9, 9]"] ;
341 -> 343 ;
344 [label="Work_study_hours <= 7.5\ngini = 0.252\nsamples = 338\nvalue = [50, 288]"] ;
336 -> 344 ;
345 [label="Study Satisfaction <= 2.5\ngini = 0.366\nsamples = 137\nvalue = [33, 104]"] ;
344 -> 345 ;
346 [label="gini = 0.14\nsamples = 53\nvalue = [4, 49]"] ;
345 -> 346 ;
347 [label="gini = 0.452\nsamples = 84\nvalue = [29, 55]"] ;
345 -> 347 ;
348 [label="Age <= 23.5\ngini = 0.155\nsamples = 201\nvalue = [17, 184]"] ;
344 -> 348 ;
349 [label="gini = 0.057\nsamples = 102\nvalue = [3, 99]"] ;
348 -> 349 ;
350 [label="gini = 0.243\nsamples = 99\nvalue = [14, 85]"] ;
348 -> 350 ;
351 [label="Financial Stress <= 4.5\ngini = 0.494\nsamples = 230\nvalue = [102, 128]"] ;
335 -> 351 ;
352 [label="Work_study_hours <= 9.5\ngini = 0.496\nsamples = 139\nvalue = [76, 63]"] ;
351 -> 352 ;
353 [label="Study Satisfaction <= 1.5\ngini = 0.457\nsamples = 82\nvalue = [53, 29]"] ;
352 -> 353 ;
354 [label="gini = 0.355\nsamples = 13\nvalue = [3, 10]"] ;
353 -> 354 ;
355 [label="gini = 0.399\nsamples = 69\nvalue = [50, 19]"] ;
353 -> 355 ;
356 [label="CGPA <= 5.71\ngini = 0.481\nsamples = 57\nvalue = [23, 34]"] ;
352 -> 356 ;
357 [label="gini = 0.278\nsamples = 6\nvalue = [5, 1]"] ;
356 -> 357 ;
358 [label="gini = 0.457\nsamples = 51\nvalue = [18, 33]"] ;
356 -> 358 ;
359 [label="Work_study_hours <= 7.5\ngini = 0.408\nsamples = 91\nvalue = [26, 65]"] ;
351 -> 359 ;
360 [label="Dietary Habits_Moderate <= 0.5\ngini = 0.495\nsamples = 42\nvalue = [19.0, 23.0]"] ;
359 -> 360 ;
361 [label="gini = 0.436\nsamples = 28\nvalue = [9, 19]"] ;
360 -> 361 ;
362 [label="gini = 0.408\nsamples = 14\nvalue = [10, 4]"] ;
360 -> 362 ;
363 [label="Work_study_hours <= 11.5\ngini = 0.245\nsamples = 49\nvalue = [7, 42]"] ;
359 -> 363 ;
364 [label="gini = 0.149\nsamples = 37\nvalue = [3, 34]"] ;
363 -> 364 ;
365 [label="gini = 0.444\nsamples = 12\nvalue = [4, 8]"] ;
363 -> 365 ;
366 [label="Financial Stress <= 2.5\ngini = 0.216\nsamples = 10195\nvalue = [1256, 8939]"] ;
242 -> 366 ;
367 [label="Academic Pressure <= 3.5\ngini = 0.367\nsamples = 2810\nvalue = [681, 2129]"] ;
366 -> 367 ;
368 [label="Age <= 24.5\ngini = 0.476\nsamples = 997\nvalue = [389, 608]"] ;
367 -> 368 ;
369 [label="Work_study_hours <= 5.5\ngini = 0.381\nsamples = 403\nvalue = [103.0, 300.0]"] ;
368 -> 369 ;
370 [label="Financial Stress <= 1.5\ngini = 0.477\nsamples = 112\nvalue = [44, 68]"] ;
369 -> 370 ;
371 [label="CGPA <= 7.735\ngini = 0.5\nsamples = 64\nvalue = [32, 32]"] ;
370 -> 371 ;
372 [label="gini = 0.461\nsamples = 36\nvalue = [23, 13]"] ;
371 -> 372 ;
373 [label="gini = 0.436\nsamples = 28\nvalue = [9, 19]"] ;
371 -> 373 ;
374 [label="Study Satisfaction <= 4.5\ngini = 0.375\nsamples = 48\nvalue = [12, 36]"] ;
370 -> 374 ;
375 [label="gini = 0.325\nsamples = 44\nvalue = [9, 35]"] ;
374 -> 375 ;
376 [label="gini = 0.375\nsamples = 4\nvalue = [3, 1]"] ;
374 -> 376 ;
377 [label="Dietary Habits_Unhealthy <= 0.5\ngini = 0.323\nsamples = 291\nvalue = [59.0, 232.0]"] ;
369 -> 377 ;
378 [label="Study Satisfaction <= 3.5\ngini = 0.366\nsamples = 195\nvalue = [47, 148]"] ;
377 -> 378 ;
379 [label="gini = 0.312\nsamples = 119\nvalue = [23, 96]"] ;
378 -> 379 ;
380 [label="gini = 0.432\nsamples = 76\nvalue = [24, 52]"] ;
378 -> 380 ;
381 [label="CGPA <= 7.48\ngini = 0.219\nsamples = 96\nvalue = [12, 84]"] ;
377 -> 381 ;
382 [label="gini = 0.049\nsamples = 40\nvalue = [1, 39]"] ;
381 -> 382 ;
383 [label="gini = 0.316\nsamples = 56\nvalue = [11, 45]"] ;
381 -> 383 ;
384 [label="Study Satisfaction <= 1.5\ngini = 0.499\nsamples = 594\nvalue = [286, 308]"] ;
368 -> 384 ;
385 [label="Work_study_hours <= 7.5\ngini = 0.387\nsamples = 103\nvalue = [27, 76]"] ;
384 -> 385 ;
386 [label="Dietary Habits_Unhealthy <= 0.5\ngini = 0.487\nsamples = 43\nvalue = [18, 25]"] ;
385 -> 386 ;
387 [label="gini = 0.5\nsamples = 33\nvalue = [17, 16]"] ;
386 -> 387 ;
388 [label="gini = 0.18\nsamples = 10\nvalue = [1, 9]"] ;
386 -> 388 ;
389 [label="CGPA <= 9.94\ngini = 0.255\nsamples = 60\nvalue = [9, 51]"] ;
385 -> 389 ;
390 [label="gini = 0.234\nsamples = 59\nvalue = [8, 51]"] ;
389 -> 390 ;
391 [label="gini = 0.0\nsamples = 1\nvalue = [1, 0]"] ;
389 -> 391 ;
392 [label="Dietary Habits_Unhealthy <= 0.5\ngini = 0.498\nsamples = 491\nvalue = [259, 232]"] ;
384 -> 392 ;
393 [label="Work_study_hours <= 5.5\ngini = 0.482\nsamples = 331\nvalue = [197, 134]"] ;
392 -> 393 ;
394 [label="gini = 0.377\nsamples = 111\nvalue = [83.0, 28.0]"] ;
393 -> 394 ;
395 [label="gini = 0.499\nsamples = 220\nvalue = [114, 106]"] ;
393 -> 395 ;
396 [label="Age <= 31.5\ngini = 0.475\nsamples = 160\nvalue = [62, 98]"] ;
392 -> 396 ;
397 [label="gini = 0.433\nsamples = 123\nvalue = [39, 84]"] ;
396 -> 397 ;
398 [label="gini = 0.47\nsamples = 37\nvalue = [23, 14]"] ;
396 -> 398 ;
399 [label="Age <= 33.5\ngini = 0.27\nsamples = 1813\nvalue = [292, 1521]"] ;
367 -> 399 ;
400 [label="Work_study_hours <= 5.5\ngini = 0.247\nsamples = 1740\nvalue = [251, 1489]"] ;
399 -> 400 ;
401 [label="Age <= 25.5\ngini = 0.379\nsamples = 465\nvalue = [118.0, 347.0]"] ;
400 -> 401 ;
402 [label="Study Satisfaction <= 3.5\ngini = 0.261\nsamples = 233\nvalue = [36, 197]"] ;
401 -> 402 ;
403 [label="gini = 0.195\nsamples = 164\nvalue = [18, 146]"] ;
402 -> 403 ;
404 [label="gini = 0.386\nsamples = 69\nvalue = [18, 51]"] ;
402 -> 404 ;
405 [label="Sleep Duration_Less than 5 hours <= 0.5\ngini = 0.457\nsamples = 232\nvalue = [82, 150]"] ;
401 -> 405 ;
406 [label="gini = 0.484\nsamples = 158\nvalue = [65, 93]"] ;
405 -> 406 ;
407 [label="gini = 0.354\nsamples = 74\nvalue = [17, 57]"] ;
405 -> 407 ;
408 [label="Study Satisfaction <= 4.5\ngini = 0.187\nsamples = 1275\nvalue = [133, 1142]"] ;
400 -> 408 ;
409 [label="CGPA <= 9.975\ngini = 0.148\nsamples = 1097\nvalue = [88, 1009]"] ;
408 -> 409 ;
410 [label="gini = 0.145\nsamples = 1095\nvalue = [86, 1009]"] ;
409 -> 410 ;
411 [label="gini = 0.0\nsamples = 2\nvalue = [2, 0]"] ;
409 -> 411 ;
412 [label="Academic Pressure <= 4.5\ngini = 0.378\nsamples = 178\nvalue = [45, 133]"] ;
408 -> 412 ;
413 [label="gini = 0.479\nsamples = 83\nvalue = [33.0, 50.0]"] ;
412 -> 413 ;
414 [label="gini = 0.221\nsamples = 95\nvalue = [12, 83]"] ;
412 -> 414 ;
415 [label="Work_study_hours <= 9.5\ngini = 0.492\nsamples = 73\nvalue = [41, 32]"] ;
399 -> 415 ;
416 [label="Sleep Duration_7-8 hours <= 0.5\ngini = 0.444\nsamples = 51\nvalue = [34, 17]"] ;
415 -> 416 ;
417 [label="CGPA <= 9.46\ngini = 0.488\nsamples = 38\nvalue = [22, 16]"] ;
416 -> 417 ;
418 [label="gini = 0.498\nsamples = 34\nvalue = [18, 16]"] ;
417 -> 418 ;
419 [label="gini = 0.0\nsamples = 4\nvalue = [4, 0]"] ;
417 -> 419 ;
420 [label="Dietary Habits_Moderate <= 0.5\ngini = 0.142\nsamples = 13\nvalue = [12, 1]"] ;
416 -> 420 ;
421 [label="gini = 0.0\nsamples = 9\nvalue = [9, 0]"] ;
420 -> 421 ;
422 [label="gini = 0.375\nsamples = 4\nvalue = [3, 1]"] ;
420 -> 422 ;
423 [label="Sleep Duration_7-8 hours <= 0.5\ngini = 0.434\nsamples = 22\nvalue = [7.0, 15.0]"] ;
415 -> 423 ;
424 [label="Gender_Male <= 0.5\ngini = 0.32\nsamples = 15\nvalue = [3, 12]"] ;
423 -> 424 ;
425 [label="gini = 0.0\nsamples = 9\nvalue = [0, 9]"] ;
424 -> 425 ;
426 [label="gini = 0.5\nsamples = 6\nvalue = [3, 3]"] ;
424 -> 426 ;
427 [label="Study Satisfaction <= 3.5\ngini = 0.49\nsamples = 7\nvalue = [4, 3]"] ;
423 -> 427 ;
428 [label="gini = 0.48\nsamples = 5\nvalue = [2, 3]"] ;
427 -> 428 ;
429 [label="gini = 0.0\nsamples = 2\nvalue = [2, 0]"] ;
427 -> 429 ;
430 [label="Age <= 32.5\ngini = 0.144\nsamples = 7385\nvalue = [575, 6810]"] ;
366 -> 430 ;
431 [label="Work_study_hours <= 5.5\ngini = 0.124\nsamples = 6741\nvalue = [446, 6295]"] ;
430 -> 431 ;
432 [label="Academic Pressure <= 3.5\ngini = 0.217\nsamples = 1748\nvalue = [217, 1531]"] ;
431 -> 432 ;
433 [label="Financial Stress <= 3.5\ngini = 0.324\nsamples = 625\nvalue = [127.0, 498.0]"] ;
432 -> 433 ;
434 [label="Study Satisfaction <= 3.5\ngini = 0.449\nsamples = 147\nvalue = [50, 97]"] ;
433 -> 434 ;
435 [label="gini = 0.375\nsamples = 92\nvalue = [23, 69]"] ;
434 -> 435 ;
436 [label="gini = 0.5\nsamples = 55\nvalue = [27.0, 28.0]"] ;
434 -> 436 ;
437 [label="Dietary Habits_Unhealthy <= 0.5\ngini = 0.27\nsamples = 478\nvalue = [77, 401]"] ;
433 -> 437 ;
438 [label="gini = 0.33\nsamples = 283\nvalue = [59, 224]"] ;
437 -> 438 ;
439 [label="gini = 0.168\nsamples = 195\nvalue = [18, 177]"] ;
437 -> 439 ;
440 [label="Financial Stress <= 4.5\ngini = 0.147\nsamples = 1123\nvalue = [90, 1033]"] ;
432 -> 440 ;
441 [label="Academic Pressure <= 4.5\ngini = 0.191\nsamples = 654\nvalue = [70, 584]"] ;
440 -> 441 ;
442 [label="gini = 0.254\nsamples = 302\nvalue = [45, 257]"] ;
441 -> 442 ;
443 [label="gini = 0.132\nsamples = 352\nvalue = [25.0, 327.0]"] ;
441 -> 443 ;
444 [label="Dietary Habits_Unhealthy <= 0.5\ngini = 0.082\nsamples = 469\nvalue = [20, 449]"] ;
440 -> 444 ;
445 [label="gini = 0.116\nsamples = 259\nvalue = [16, 243]"] ;
444 -> 445 ;
446 [label="gini = 0.037\nsamples = 210\nvalue = [4, 206]"] ;
444 -> 446 ;
447 [label="Financial Stress <= 3.5\ngini = 0.088\nsamples = 4993\nvalue = [229, 4764]"] ;
431 -> 447 ;
448 [label="Dietary Habits_Unhealthy <= 0.5\ngini = 0.151\nsamples = 1261\nvalue = [104, 1157]"] ;
447 -> 448 ;
449 [label="Work_study_hours <= 9.5\ngini = 0.204\nsamples = 710\nvalue = [82, 628]"] ;
448 -> 449 ;
450 [label="gini = 0.272\nsamples = 321\nvalue = [52, 269]"] ;
449 -> 450 ;
451 [label="gini = 0.142\nsamples = 389\nvalue = [30, 359]"] ;
449 -> 451 ;
452 [label="CGPA <= 9.99\ngini = 0.077\nsamples = 551\nvalue = [22, 529]"] ;
448 -> 452 ;
453 [label="gini = 0.073\nsamples = 550\nvalue = [21, 529]"] ;
452 -> 453 ;
454 [label="gini = 0.0\nsamples = 1\nvalue = [1, 0]"] ;
452 -> 454 ;
455 [label="Academic Pressure <= 4.5\ngini = 0.065\nsamples = 3732\nvalue = [125, 3607]"] ;
447 -> 455 ;
456 [label="Age <= 26.5\ngini = 0.089\nsamples = 2339\nvalue = [109, 2230]"] ;
455 -> 456 ;
457 [label="gini = 0.063\nsamples = 1622\nvalue = [53, 1569]"] ;
456 -> 457 ;
458 [label="gini = 0.144\nsamples = 717\nvalue = [56, 661]"] ;
456 -> 458 ;
459 [label="Work_study_hours <= 9.5\ngini = 0.023\nsamples = 1393\nvalue = [16, 1377]"] ;
455 -> 459 ;
460 [label="gini = 0.04\nsamples = 593\nvalue = [12, 581]"] ;
459 -> 460 ;
461 [label="gini = 0.01\nsamples = 800\nvalue = [4, 796]"] ;
459 -> 461 ;
462 [label="Academic Pressure <= 3.5\ngini = 0.32\nsamples = 644\nvalue = [129, 515]"] ;
430 -> 462 ;
463 [label="Financial Stress <= 3.5\ngini = 0.443\nsamples = 245\nvalue = [81, 164]"] ;
462 -> 463 ;
464 [label="Work_study_hours <= 9.5\ngini = 0.5\nsamples = 77\nvalue = [39.0, 38.0]"] ;
463 -> 464 ;
465 [label="CGPA <= 5.875\ngini = 0.44\nsamples = 46\nvalue = [31, 15]"] ;
464 -> 465 ;
466 [label="gini = 0.0\nsamples = 11\nvalue = [11, 0]"] ;
465 -> 466 ;
467 [label="gini = 0.49\nsamples = 35\nvalue = [20, 15]"] ;
465 -> 467 ;
468 [label="CGPA <= 7.215\ngini = 0.383\nsamples = 31\nvalue = [8, 23]"] ;
464 -> 468 ;
469 [label="gini = 0.496\nsamples = 11\nvalue = [5, 6]"] ;
468 -> 469 ;
470 [label="gini = 0.255\nsamples = 20\nvalue = [3, 17]"] ;
468 -> 470 ;
471 [label="Family History_Yes <= 0.5\ngini = 0.375\nsamples = 168\nvalue = [42, 126]"] ;
463 -> 471 ;
472 [label="Study Satisfaction <= 4.5\ngini = 0.463\nsamples = 77\nvalue = [28, 49]"] ;
471 -> 472 ;
473 [label="gini = 0.427\nsamples = 68\nvalue = [21, 47]"] ;
472 -> 473 ;
474 [label="gini = 0.346\nsamples = 9\nvalue = [7, 2]"] ;
472 -> 474 ;
475 [label="Age <= 33.5\ngini = 0.26\nsamples = 91\nvalue = [14, 77]"] ;
471 -> 475 ;
476 [label="gini = 0.137\nsamples = 54\nvalue = [4, 50]"] ;
475 -> 476 ;
477 [label="gini = 0.394\nsamples = 37\nvalue = [10, 27]"] ;
475 -> 477 ;
478 [label="Age <= 42.5\ngini = 0.212\nsamples = 399\nvalue = [48, 351]"] ;
462 -> 478 ;
479 [label="Study Satisfaction <= 2.5\ngini = 0.205\nsamples = 397\nvalue = [46, 351]"] ;
478 -> 479 ;
480 [label="Gender_Male <= 0.5\ngini = 0.115\nsamples = 180\nvalue = [11, 169]"] ;
479 -> 480 ;
481 [label="gini = 0.219\nsamples = 80\nvalue = [10, 70]"] ;
480 -> 481 ;
482 [label="gini = 0.02\nsamples = 100\nvalue = [1, 99]"] ;
480 -> 482 ;
483 [label="Work_study_hours <= 6.5\ngini = 0.271\nsamples = 217\nvalue = [35, 182]"] ;
479 -> 483 ;
484 [label="gini = 0.371\nsamples = 69\nvalue = [17, 52]"] ;
483 -> 484 ;
485 [label="gini = 0.214\nsamples = 148\nvalue = [18, 130]"] ;
483 -> 485 ;
486 [label="gini = 0.0\nsamples = 2\nvalue = [2, 0]"] ;
478 -> 486 ;
}